-1.604283305750552699e+02,-1.433595689302181881e+02,-1.205508263620830576e+02,-1.097524891598534396e+02,-1.004323709598160690e+02,-8.928638917296132149e+01,-8.855702953643941555e+01,-7.722359641524894869e+01,-7.360380454430537611e+01,-7.256909936597480737e+01,-7.241517075114637692e+01,-7.023418635120231102e+01,-6.920201309929677791e+01,-6.900520351268829700e+01,-5.324586635174961202e+01,-5.101905097745139983e+01,-4.320773635442378691e+01,-4.212450768847230620e+01,-3.583088021203860762e+01,-3.149594918518602071e+01,-2.754357441301505105e+01,-2.576492382528954295e+01,-2.287651562604213495e+01,-2.213878254719065808e+01,-2.080718988254398027e+01,-1.788878993511957560e+01,-1.765495556420739831e+01,-1.574920736027956991e+01,-1.302624237943859953e+01,-9.848958165686894972e+00,-8.932297084614674532e+00,-7.074503564160067981e+00,-6.652967075600656699e+00,-1.646686938987699023e+00,-9.609012716573488433e-01,-8.422936586763967171e-01,3.028207871870904455e+00,3.254787795751525437e+00,6.150661638863823555e+00,6.740067318228625481e+00,7.949879358393246775e+00,8.220896728374640361e+00,8.817203087131929351e+00,1.083997475265601906e+01,1.193670093161682644e+01,1.246173867259324197e+01,1.329966477797560742e+01,1.621232704896252130e+01,1.964986905192154154e+01,2.093491459876398153e+01,2.103305590953601723e+01,2.139208473026351953e+01,2.310062012104990004e+01,2.406811584960394157e+01,2.639758349167900064e+01,2.697680776143326398e+01,2.728406401209218757e+01,2.742889981566588631e+01,2.858139033098206028e+01,2.914447509521050961e+01,3.203242123848576739e+01,3.217757614089717322e+01,3.244772815157071477e+01,3.278713018887015096e+01,3.332917332005786193e+01,3.465388153147387129e+01,3.466322438277055085e+01,3.515521027382783359e+01,3.619652585662510091e+01,3.651814503519250366e+01,3.784377748121286800e+01,3.834717505941222271e+01,3.873987863067162607e+01,3.961577449683386476e+01,4.208821262628998738e+01,4.364436120795906504e+01,4.415638378219631477e+01,4.442080709100014246e+01,4.498165972047451078e+01,4.578489503350016321e+01,4.641477804475852054e+01,4.747394065496109761e+01,4.899822238879971792e+01,5.148530440909968320e+01,5.223479648878441139e+01,5.586483826237667927e+01,5.921857402831722084e+01,6.098852260133946857e+01,6.175293050699195874e+01,6.602578907962322319e+01,6.876551569720760426e+01,6.897411943082767039e+01,6.926172847602100546e+01,7.295771028532726632e+01,7.566439900501990223e+01,7.649826535068746125e+01,7.714473814391965334e+01,9.403603299608846555e+01,1.323389402181476271e+02,2.269747720281750389e+02
